FANN_FLO_2.1
num_layers=3
learning_rate=0.700000
connection_rate=1.000000
network_type=0
learning_momentum=0.000000
training_algorithm=2
train_error_function=1
train_stop_function=0
cascade_output_change_fraction=0.010000
quickprop_decay=-0.000100
quickprop_mu=1.750000
rprop_increase_factor=1.200000
rprop_decrease_factor=0.500000
rprop_delta_min=0.000000
rprop_delta_max=50.000000
rprop_delta_zero=0.100000
cascade_output_stagnation_epochs=12
cascade_candidate_change_fraction=0.010000
cascade_candidate_stagnation_epochs=12
cascade_max_out_epochs=150
cascade_min_out_epochs=50
cascade_max_cand_epochs=150
cascade_min_cand_epochs=50
cascade_num_candidate_groups=2
bit_fail_limit=3.49999994039535522461e-01
cascade_candidate_limit=1.00000000000000000000e+03
cascade_weight_multiplier=4.00000005960464477539e-01
cascade_activation_functions_count=10
cascade_activation_functions=3 5 7 8 10 11 14 15 16 17 
cascade_activation_steepnesses_count=4
cascade_activation_steepnesses=2.50000000000000000000e-01 5.00000000000000000000e-01 7.50000000000000000000e-01 1.00000000000000000000e+00 
layer_sizes=14 14 3 
scale_included=1
scale_mean_in=0.611111 4.000000 3.500000 1.578231 3.333333 33.666668 0.244898 3.000000 10.000000 0.755102 4.000000 2.500000 3.333333 
scale_deviation_in=0.000000 0.000000 0.000000 1.247219 1.247219 46.906525 0.000000 0.000000 0.000000 0.000000 0.000000 0.000000 0.471404 
scale_new_min_in=0.000000 0.000000 0.000000 0.000000 0.000000 0.000000 0.000000 0.000000 0.000000 0.000000 0.000000 0.000000 0.000000 
scale_factor_in=0.500000 0.500000 0.500000 0.500000 0.500000 0.500000 0.500000 0.500000 0.500000 0.500000 0.500000 0.500000 0.500000 
scale_mean_out=1.080611 1.000000 
scale_deviation_out=0.757849 0.408248 
scale_new_min_out=0.000000 0.000000 
scale_factor_out=0.500000 0.500000 
neurons (num_inputs, activation_function, activation_steepness)=(0, 0, 0.00000000000000000000e+00) (0, 0, 0.00000000000000000000e+00) (0, 0, 0.00000000000000000000e+00) (0, 0, 0.00000000000000000000e+00) (0, 0, 0.00000000000000000000e+00) (0, 0, 0.00000000000000000000e+00) (0, 0, 0.00000000000000000000e+00) (0, 0, 0.00000000000000000000e+00) (0, 0, 0.00000000000000000000e+00) (0, 0, 0.00000000000000000000e+00) (0, 0, 0.00000000000000000000e+00) (0, 0, 0.00000000000000000000e+00) (0, 0, 0.00000000000000000000e+00) (0, 0, 0.00000000000000000000e+00) (14, 4, 5.00000000000000000000e-01) (14, 4, 5.00000000000000000000e-01) (14, 4, 5.00000000000000000000e-01) (14, 4, 5.00000000000000000000e-01) (14, 4, 5.00000000000000000000e-01) (14, 4, 5.00000000000000000000e-01) (14, 4, 5.00000000000000000000e-01) (14, 4, 5.00000000000000000000e-01) (14, 4, 5.00000000000000000000e-01) (14, 4, 5.00000000000000000000e-01) (14, 4, 5.00000000000000000000e-01) (14, 4, 5.00000000000000000000e-01) (14, 4, 5.00000000000000000000e-01) (0, 0, 0.00000000000000000000e+00) (14, 0, 5.00000000000000000000e-01) (14, 0, 5.00000000000000000000e-01) (0, 0, 0.00000000000000000000e+00) 
connections (connected_to_neuron, weight)=(0, 5.09348535537719726562e+00) (1, 5.02774810791015625000e+00) (2, 5.16914796829223632812e+00) (3, 1.50000000000000000000e+03) (4, 1.50000000000000000000e+03) (5, 1.50000000000000000000e+03) (6, 5.16276121139526367188e+00) (7, 5.04644489288330078125e+00) (8, 5.18439579010009765625e+00) (9, -2.23119235038757324219e+00) (10, 5.16397905349731445312e+00) (11, 5.08593463897705078125e+00) (12, -1.50000000000000000000e+03) (13, -2.15263819694519042969e+00) (0, 5.08546066284179687500e+00) (1, 5.03383541107177734375e+00) (2, 5.15350008010864257812e+00) (3, 1.50000000000000000000e+03) (4, 1.50000000000000000000e+03) (5, 1.50000000000000000000e+03) (6, 5.07589769363403320312e+00) (7, 5.00587177276611328125e+00) (8, 5.07791996002197265625e+00) (9, -1.37801544189453125000e+02) (10, 5.02914047241210937500e+00) (11, 5.19750261306762695312e+00) (12, -1.50000000000000000000e+03) (13, -1.37804794311523437500e+02) (0, 5.19077491760253906250e+00) (1, 5.04818296432495117188e+00) (2, 5.02662611007690429688e+00) (3, -1.50000000000000000000e+03) (4, -1.50000000000000000000e+03) (5, -1.50000000000000000000e+03) (6, 5.13228273391723632812e+00) (7, 5.00794076919555664062e+00) (8, 5.10333013534545898438e+00) (9, -2.24581408500671386719e+00) (10, 5.05182886123657226562e+00) (11, 5.08489179611206054688e+00) (12, 1.50000000000000000000e+03) (13, -2.32501792907714843750e+00) (0, 5.16827535629272460938e+00) (1, 5.09342336654663085938e+00) (2, 5.11928606033325195312e+00) (3, -1.50000000000000000000e+03) (4, -1.50000000000000000000e+03) (5, -1.50000000000000000000e+03) (6, 5.10818195343017578125e+00) (7, 5.05123376846313476562e+00) (8, 5.17149066925048828125e+00) (9, -3.50269770622253417969e+00) (10, 5.05454874038696289062e+00) (11, 5.04657840728759765625e+00) (12, 1.50000000000000000000e+03) (13, -3.60296010971069335938e+00) (0, 5.04124546051025390625e+00) (1, 5.09466028213500976562e+00) (2, 5.11875057220458984375e+00) (3, 1.50000000000000000000e+03) (4, 1.50000000000000000000e+03) (5, 1.50000000000000000000e+03) (6, 5.10805368423461914062e+00) (7, 5.01083517074584960938e+00) (8, 5.13320636749267578125e+00) (9, -6.94500386714935302734e-01) (10, 5.01621913909912109375e+00) (11, 5.03371000289916992188e+00) (12, -1.50000000000000000000e+03) (13, -6.66564404964447021484e-01) (0, 5.11604499816894531250e+00) (1, 5.04410600662231445312e+00) (2, 5.07591104507446289062e+00) (3, 1.50000000000000000000e+03) (4, 1.50000000000000000000e+03) (5, 1.50000000000000000000e+03) (6, 5.12983751296997070312e+00) (7, 5.05684947967529296875e+00) (8, 5.05977153778076171875e+00) (9, -4.44310617446899414062e+00) (10, 5.10552597045898437500e+00) (11, 5.02843046188354492188e+00) (12, -1.50000000000000000000e+03) (13, -4.32112216949462890625e+00) (0, 5.07245159149169921875e+00) (1, 5.03346633911132812500e+00) (2, 5.03582477569580078125e+00) (3, 1.50000000000000000000e+03) (4, 1.50000000000000000000e+03) (5, 1.50000000000000000000e+03) (6, 5.13777017593383789062e+00) (7, 5.06303071975708007812e+00) (8, 5.09201288223266601562e+00) (9, -6.33222532272338867188e+00) (10, 5.07130861282348632812e+00) (11, 5.02239274978637695312e+00) (12, -1.50000000000000000000e+03) (13, -6.29025936126708984375e+00) (0, 5.05354547500610351562e+00) (1, 5.20257139205932617188e+00) (2, 5.14790773391723632812e+00) (3, 1.50000000000000000000e+03) (4, 1.50000000000000000000e+03) (5, 1.50000000000000000000e+03) (6, 5.04569721221923828125e+00) (7, 5.17626380920410156250e+00) (8, 5.01080513000488281250e+00) (9, -4.41278266906738281250e+00) (10, 5.03028059005737304688e+00) (11, 5.06801986694335937500e+00) (12, -1.50000000000000000000e+03) (13, -4.45240688323974609375e+00) (0, 5.09389305114746093750e+00) (1, 5.01667976379394531250e+00) (2, 5.08794164657592773438e+00) (3, 1.50000000000000000000e+03) (4, 1.50000000000000000000e+03) (5, 1.50000000000000000000e+03) (6, 5.07210254669189453125e+00) (7, 5.17060804367065429688e+00) (8, 5.07040214538574218750e+00) (9, -2.09074068069458007812e+00) (10, 5.03080654144287109375e+00) (11, 5.15986251831054687500e+00) (12, -1.50000000000000000000e+03) (13, -1.99842643737792968750e+00) (0, 5.17970085144042968750e+00) (1, 5.12287950515747070312e+00) (2, 5.18198060989379882812e+00) (3, -1.50000000000000000000e+03) (4, -1.50000000000000000000e+03) (5, -1.50000000000000000000e+03) (6, 5.19490003585815429688e+00) (7, 5.16390371322631835938e+00) (8, 5.14548778533935546875e+00) (9, -4.69954252243041992188e+00) (10, 5.13733053207397460938e+00) (11, 5.15373706817626953125e+00) (12, -1.50000000000000000000e+03) (13, -4.57247352600097656250e+00) (0, 5.01892757415771484375e+00) (1, 5.01070261001586914062e+00) (2, 5.09547662734985351562e+00) (3, -1.50000000000000000000e+03) (4, -1.50000000000000000000e+03) (5, -1.50000000000000000000e+03) (6, 5.07122611999511718750e+00) (7, 5.06985712051391601562e+00) (8, 5.09924507141113281250e+00) (9, -4.21525049209594726562e+00) (10, 5.03763341903686523438e+00) (11, 5.16709613800048828125e+00) (12, -1.50000000000000000000e+03) (13, -4.29002571105957031250e+00) (0, 5.12412261962890625000e+00) (1, 5.19019889831542968750e+00) (2, 5.16288995742797851562e+00) (3, -1.50000000000000000000e+03) (4, -1.50000000000000000000e+03) (5, -1.50000000000000000000e+03) (6, 5.12884759902954101562e+00) (7, 5.03003311157226562500e+00) (8, 5.06625795364379882812e+00) (9, -3.58370971679687500000e+00) (10, 5.19138336181640625000e+00) (11, 5.00891733169555664062e+00) (12, 1.50000000000000000000e+03) (13, -3.57874917984008789062e+00) (0, 5.16009855270385742188e+00) (1, 5.16147851943969726562e+00) (2, 5.08810567855834960938e+00) (3, 1.50000000000000000000e+03) (4, 1.50000000000000000000e+03) (5, -1.50000000000000000000e+03) (6, 5.08390283584594726562e+00) (7, 5.19189691543579101562e+00) (8, 5.15906572341918945312e+00) (9, -5.12355613708496093750e+00) (10, 5.05891895294189453125e+00) (11, 5.05548095703125000000e+00) (12, -1.50000000000000000000e+03) (13, -5.18208360671997070312e+00) (14, -1.21787171810865402222e-02) (15, 1.00833841133862733841e-03) (16, 1.25353351235389709473e-01) (17, 1.09293133020401000977e-01) (18, -1.16071831434965133667e-02) (19, 8.53939354419708251953e-02) (20, 7.52132805064320564270e-03) (21, 9.60044860839843750000e-02) (22, 2.46154721826314926147e-02) (23, 1.33787974715232849121e-01) (24, 1.23443506658077239990e-01) (25, 8.82970690727233886719e-02) (26, 5.17921335995197296143e-02) (27, 1.12007558345794677734e-01) (14, 9.17697250843048095703e-02) (15, 2.31713196262717247009e-03) (16, 3.21638882160186767578e-02) (17, 4.89755049347877502441e-02) (18, 1.61162644624710083008e-01) (19, 1.17717742919921875000e-01) (20, 2.27040369063615798950e-02) (21, 1.28000885248184204102e-01) (22, 9.59467887878417968750e-02) (23, 1.04006856679916381836e-01) (24, 1.17005348205566406250e-01) (25, 5.21213039755821228027e-02) (26, 5.37008941173553466797e-02) (27, -2.67740879207849502563e-02) 
