FANN_FLO_2.1
num_layers=3
learning_rate=0.700000
connection_rate=1.000000
network_type=0
learning_momentum=0.000000
training_algorithm=2
train_error_function=1
train_stop_function=0
cascade_output_change_fraction=0.010000
quickprop_decay=-0.000100
quickprop_mu=1.750000
rprop_increase_factor=1.200000
rprop_decrease_factor=0.500000
rprop_delta_min=0.000000
rprop_delta_max=50.000000
rprop_delta_zero=0.100000
cascade_output_stagnation_epochs=12
cascade_candidate_change_fraction=0.010000
cascade_candidate_stagnation_epochs=12
cascade_max_out_epochs=150
cascade_min_out_epochs=50
cascade_max_cand_epochs=150
cascade_min_cand_epochs=50
cascade_num_candidate_groups=2
bit_fail_limit=3.49999994039535522461e-01
cascade_candidate_limit=1.00000000000000000000e+03
cascade_weight_multiplier=4.00000005960464477539e-01
cascade_activation_functions_count=10
cascade_activation_functions=3 5 7 8 10 11 14 15 16 17 
cascade_activation_steepnesses_count=4
cascade_activation_steepnesses=2.50000000000000000000e-01 5.00000000000000000000e-01 7.50000000000000000000e-01 1.00000000000000000000e+00 
layer_sizes=14 14 3 
scale_included=1
scale_mean_in=0.644845 0.000000 0.000000 0.334439 0.000000 0.000000 0.333547 0.000000 0.000000 0.837885 0.000000 0.000000 5.500000 
scale_deviation_in=0.070360 0.000000 0.000000 0.108356 0.000000 0.000000 0.108031 0.000000 0.000000 0.072357 0.000000 0.000000 4.153312 
scale_new_min_in=0.000000 0.000000 0.000000 0.000000 0.000000 0.000000 0.000000 0.000000 0.000000 0.000000 0.000000 0.000000 0.000000 
scale_factor_in=0.500000 0.500000 0.500000 0.500000 0.500000 0.500000 0.500000 0.500000 0.500000 0.500000 0.500000 0.500000 0.500000 
scale_mean_out=1.261533 0.842688 
scale_deviation_out=0.442254 0.298685 
scale_new_min_out=0.000000 0.000000 
scale_factor_out=0.500000 0.500000 
neurons (num_inputs, activation_function, activation_steepness)=(0, 0, 0.00000000000000000000e+00) (0, 0, 0.00000000000000000000e+00) (0, 0, 0.00000000000000000000e+00) (0, 0, 0.00000000000000000000e+00) (0, 0, 0.00000000000000000000e+00) (0, 0, 0.00000000000000000000e+00) (0, 0, 0.00000000000000000000e+00) (0, 0, 0.00000000000000000000e+00) (0, 0, 0.00000000000000000000e+00) (0, 0, 0.00000000000000000000e+00) (0, 0, 0.00000000000000000000e+00) (0, 0, 0.00000000000000000000e+00) (0, 0, 0.00000000000000000000e+00) (0, 0, 0.00000000000000000000e+00) (14, 4, 5.00000000000000000000e-01) (14, 4, 5.00000000000000000000e-01) (14, 4, 5.00000000000000000000e-01) (14, 4, 5.00000000000000000000e-01) (14, 4, 5.00000000000000000000e-01) (14, 4, 5.00000000000000000000e-01) (14, 4, 5.00000000000000000000e-01) (14, 4, 5.00000000000000000000e-01) (14, 4, 5.00000000000000000000e-01) (14, 4, 5.00000000000000000000e-01) (14, 4, 5.00000000000000000000e-01) (14, 4, 5.00000000000000000000e-01) (14, 4, 5.00000000000000000000e-01) (0, 0, 0.00000000000000000000e+00) (14, 0, 5.00000000000000000000e-01) (14, 0, 5.00000000000000000000e-01) (0, 0, 0.00000000000000000000e+00) 
connections (connected_to_neuron, weight)=(0, 1.50000000000000000000e+03) (1, 5.19959211349487304688e+00) (2, 5.09787750244140625000e+00) (3, 1.50000000000000000000e+03) (4, 5.12000370025634765625e+00) (5, 5.14626216888427734375e+00) (6, 1.50000000000000000000e+03) (7, 5.19855451583862304688e+00) (8, 5.02127170562744140625e+00) (9, -1.50000000000000000000e+03) (10, 5.02201843261718750000e+00) (11, 5.18523406982421875000e+00) (12, 1.50000000000000000000e+03) (13, -2.05819654464721679688e+00) (0, 1.50000000000000000000e+03) (1, 5.05228900909423828125e+00) (2, 5.01307249069213867188e+00) (3, -1.50000000000000000000e+03) (4, 5.13089990615844726562e+00) (5, 5.18924808502197265625e+00) (6, -1.50000000000000000000e+03) (7, 5.04639959335327148438e+00) (8, 5.18009424209594726562e+00) (9, -1.50000000000000000000e+03) (10, 5.02772521972656250000e+00) (11, 5.17693281173706054688e+00) (12, 1.50000000000000000000e+03) (13, -2.01302003860473632812e+00) (0, 1.50000000000000000000e+03) (1, 5.01167583465576171875e+00) (2, 5.11063909530639648438e+00) (3, -1.50000000000000000000e+03) (4, 5.00843191146850585938e+00) (5, 5.00569105148315429688e+00) (6, -1.50000000000000000000e+03) (7, 5.12587881088256835938e+00) (8, 5.14939689636230468750e+00) (9, -1.50000000000000000000e+03) (10, 5.12159729003906250000e+00) (11, 5.16811466217041015625e+00) (12, 1.50000000000000000000e+03) (13, -6.68501794338226318359e-01) (0, 1.50000000000000000000e+03) (1, 5.12847566604614257812e+00) (2, 5.07817459106445312500e+00) (3, -1.50000000000000000000e+03) (4, 5.17821502685546875000e+00) (5, 5.08869028091430664062e+00) (6, -1.50000000000000000000e+03) (7, 5.10628175735473632812e+00) (8, 5.07510328292846679688e+00) (9, -1.50000000000000000000e+03) (10, 5.15012741088867187500e+00) (11, 5.05236482620239257812e+00) (12, 1.50000000000000000000e+03) (13, 1.50000000000000000000e+03) (0, 1.50000000000000000000e+03) (1, 5.06704139709472656250e+00) (2, 5.12153530120849609375e+00) (3, 2.92737340927124023438e+00) (4, 5.07615995407104492188e+00) (5, 5.02934885025024414062e+00) (6, 1.75423932075500488281e+00) (7, 5.08203506469726562500e+00) (8, 5.03248310089111328125e+00) (9, -1.50000000000000000000e+03) (10, 5.00508785247802734375e+00) (11, 5.17932748794555664062e+00) (12, 1.50000000000000000000e+03) (13, -1.92604053020477294922e+00) (0, 1.50000000000000000000e+03) (1, 5.19157457351684570312e+00) (2, 5.06236219406127929688e+00) (3, -1.50000000000000000000e+03) (4, 5.11721563339233398438e+00) (5, 5.13798093795776367188e+00) (6, -1.50000000000000000000e+03) (7, 5.09259796142578125000e+00) (8, 5.02384424209594726562e+00) (9, -1.50000000000000000000e+03) (10, 5.19633245468139648438e+00) (11, 5.09639072418212890625e+00) (12, 1.50000000000000000000e+03) (13, -8.66852760314941406250e-01) (0, 1.50000000000000000000e+03) (1, 5.14954566955566406250e+00) (2, 5.11608743667602539062e+00) (3, -1.50000000000000000000e+03) (4, 5.01375818252563476562e+00) (5, 5.03479719161987304688e+00) (6, -1.50000000000000000000e+03) (7, 5.08736133575439453125e+00) (8, 5.06158924102783203125e+00) (9, -1.50000000000000000000e+03) (10, 5.16684484481811523438e+00) (11, 5.09151506423950195312e+00) (12, 1.50000000000000000000e+03) (13, -1.06805396080017089844e+00) (0, 1.50000000000000000000e+03) (1, 5.13541889190673828125e+00) (2, 5.09067344665527343750e+00) (3, -1.50000000000000000000e+03) (4, 5.12415742874145507812e+00) (5, 5.15048170089721679688e+00) (6, -1.50000000000000000000e+03) (7, 5.03854751586914062500e+00) (8, 5.08563232421875000000e+00) (9, -1.50000000000000000000e+03) (10, 5.12858819961547851562e+00) (11, 5.10691928863525390625e+00) (12, 1.50000000000000000000e+03) (13, -7.57712364196777343750e-01) (0, 1.50000000000000000000e+03) (1, 5.06006479263305664062e+00) (2, 5.06288051605224609375e+00) (3, -1.50000000000000000000e+03) (4, 5.00678157806396484375e+00) (5, 5.17641782760620117188e+00) (6, -1.50000000000000000000e+03) (7, 5.01798295974731445312e+00) (8, 5.00838232040405273438e+00) (9, -1.50000000000000000000e+03) (10, 5.10278701782226562500e+00) (11, 5.06741476058959960938e+00) (12, 1.50000000000000000000e+03) (13, -6.86180770397186279297e-01) (0, 1.50000000000000000000e+03) (1, 5.14217281341552734375e+00) (2, 5.03334569931030273438e+00) (3, -1.50000000000000000000e+03) (4, 5.07476234436035156250e+00) (5, 5.12146234512329101562e+00) (6, -1.50000000000000000000e+03) (7, 5.19637298583984375000e+00) (8, 5.06911516189575195312e+00) (9, -1.50000000000000000000e+03) (10, 5.03208494186401367188e+00) (11, 5.15219402313232421875e+00) (12, 1.50000000000000000000e+03) (13, -9.63877379894256591797e-01) (0, 1.50000000000000000000e+03) (1, 5.15747451782226562500e+00) (2, 5.07737588882446289062e+00) (3, -1.50000000000000000000e+03) (4, 5.01470947265625000000e+00) (5, 5.13770055770874023438e+00) (6, -1.50000000000000000000e+03) (7, 5.01893424987792968750e+00) (8, 5.11128425598144531250e+00) (9, -1.50000000000000000000e+03) (10, 5.03435993194580078125e+00) (11, 5.11710977554321289062e+00) (12, 1.50000000000000000000e+03) (13, 6.37992668151855468750e+00) (0, 1.50000000000000000000e+03) (1, 5.18582105636596679688e+00) (2, 5.19884443283081054688e+00) (3, -1.50000000000000000000e+03) (4, 5.12515783309936523438e+00) (5, 5.02935457229614257812e+00) (6, -1.50000000000000000000e+03) (7, 5.19737339019775390625e+00) (8, 5.14826250076293945312e+00) (9, -1.50000000000000000000e+03) (10, 5.19090986251831054688e+00) (11, 5.01454925537109375000e+00) (12, 1.50000000000000000000e+03) (13, -1.44432592391967773438e+00) (0, -1.50000000000000000000e+03) (1, 5.00927209854125976562e+00) (2, 5.17572641372680664062e+00) (3, 8.10807168483734130859e-01) (4, 5.16419029235839843750e+00) (5, 5.05026960372924804688e+00) (6, 1.23843276500701904297e+00) (7, 5.17634439468383789062e+00) (8, 5.18542051315307617188e+00) (9, 1.50000000000000000000e+03) (10, 5.19272422790527343750e+00) (11, 5.09387063980102539062e+00) (12, -1.50000000000000000000e+03) (13, 4.41467761993408203125e+00) (14, -4.14929650723934173584e-02) (15, 1.59620139747858047485e-02) (16, 1.06555506587028503418e-01) (17, 1.37869045138359069824e-01) (18, -1.03551882784813642502e-03) (19, 1.02569445967674255371e-01) (20, 7.05764144659042358398e-02) (21, 1.21474459767341613770e-01) (22, 1.29402905702590942383e-01) (23, 2.22641155123710632324e-02) (24, 1.16019621491432189941e-01) (25, 7.48381465673446655273e-02) (26, 2.06351265660487115383e-04) (27, 1.04110971093177795410e-01) (14, 3.28562259674072265625e-02) (15, 4.72922362387180328369e-02) (16, 6.78527876734733581543e-02) (17, -5.68818720057606697083e-03) (18, 5.39982877671718597412e-02) (19, 4.06630672514438629150e-02) (20, 9.38079133629798889160e-03) (21, 1.54608460143208503723e-02) (22, 8.84320512413978576660e-02) (23, 7.61002078652381896973e-02) (24, -1.09915677458047866821e-02) (25, 7.10419490933418273926e-02) (26, -6.42842575907707214355e-02) (27, -2.10859458893537521362e-02) 
